{"learner":{"attributes":{},"feature_names":["view","addtocart"],"feature_types":["int","int"],"gradient_booster":{"model":{"gbtree_model_param":{"num_parallel_tree":"1","num_trees":"50"},"iteration_indptr":[0,1,2,3,4,5,6,7,8,9,10,11,12,13,14,15,16,17,18,19,20,21,22,23,24,25,26,27,28,29,30,31,32,33,34,35,36,37,38,39,40,41,42,43,44,45,46,47,48,49,50],"tree_info":[0,0,0,0,0,0,0,0,0,0,0,0,0,0,0,0,0,0,0,0,0,0,0,0,0,0,0,0,0,0,0,0,0,0,0,0,0,0,0,0,0,0,0,0,0,0,0,0,0,0],"trees":[{"base_weights":[-9.838569E-3,1.5590544E0,-1.0986312E-1,-3.8348597E-1,5.743029E0,-5.9276868E-2,1.4178924E-1,4.3093076E0,9.879102E-1,3.549992E-1,6.0982305E-1],"categories":[],"categories_nodes":[],"categories_segments":[],"categories_sizes":[],"default_left":[0,0,0,0,0,0,0,0,0,0,0],"id":0,"left_children":[1,-1,3,5,7,-1,-1,9,-1,-1,-1],"loss_changes":[4.293697E3,0E0,4.3806606E3,9.858705E2,6.81885E2,0E0,0E0,1.0399243E2,0E0,0E0,0E0],"parents":[2147483647,0,0,2,2,3,3,4,4,7,7],"right_children":[2,-1,4,6,8,-1,-1,10,-1,-1,-1],"split_conditions":[1E0,1.5590544E0,3E0,2E0,5E0,-5.9276868E-2,1.4178924E-1,4E0,9.879102E-1,3.549992E-1,6.0982305E-1],"split_indices":[0,0,0,0,0,0,0,0,0,0,0],"split_type":[0,0,0,0,0,0,0,0,0,0,0],"sum_hessian":[2.7495288E3,1.6530134E1,2.7329988E3,2.61183E3,1.2116864E2,2.340575E3,2.712552E2,9.149489E1,2.9673752E1,6.6326675E1,2.5168211E1],"tree_param":{"num_deleted":"0","num_feature":"2","num_nodes":"11","size_leaf_vector":"1"}},{"base_weights":[-3.4655143E-2,-9.064959E-2,1.516922E0],"categories":[],"categories_nodes":[],"categories_segments":[],"categories_sizes":[],"default_left":[0,0,0],"id":1,"left_children":[1,-1,-1],"loss_changes":[3.723713E4,0E0,0E0],"parents":[2147483647,0,0],"right_children":[2,-1,-1],"split_conditions":[1E0,-9.064959E-2,1.516922E0],"split_indices":[1,0,0],"split_type":[0,0,0],"sum_hessian":[2.807176E3,2.6558228E3,1.5135333E2],"tree_param":{"num_deleted":"0","num_feature":"2","num_nodes":"3","size_leaf_vector":"1"}},{"base_weights":[-1.1988299E-1,-4.8263764E-1,1.1839223E0,5.9071877E-3,-5.43755E-2,8.198959E-2,1.5939654E0,1.6078335E0,-3.7179764E-2,1.5478569E0,1.8721318E-1,1.6591732E-1,1.22449E0,1.0667419E-1,1.4460276E-1],"categories":[],"categories_nodes":[],"categories_segments":[],"categories_sizes":[],"default_left":[0,0,0,0,0,0,0,0,0,0,0,0,0,0,0],"id":2,"left_children":[1,3,5,-1,-1,-1,7,9,-1,11,-1,-1,13,-1,-1],"loss_changes":[1.4184401E3,7.770422E1,9.613757E1,0E0,0E0,0E0,8.9383545E0,1.9210205E0,0E0,7.0947876E0,0E0,0E0,8.5990906E-1,0E0,0E0],"parents":[2147483647,0,0,1,1,2,2,6,6,7,7,9,9,12,12],"right_children":[2,4,6,-1,-1,-1,8,10,-1,12,-1,-1,14,-1,-1],"split_conditions":[2E0,1E0,3E0,5.9071877E-3,-5.43755E-2,8.198959E-2,2.6E1,7E0,-3.7179764E-2,5E0,1.8721318E-1,1.6591732E-1,6E0,1.0667419E-1,1.4460276E-1],"split_indices":[0,0,0,0,0,0,0,0,0,0,0,0,0,0,0],"split_type":[0,0,0,0,0,0,0,0,0,0,0,0,0,0,0],"sum_hessian":[2.9968525E3,2.3450303E3,6.518223E2,2.3775333E2,2.1072769E3,3.468748E2,3.0494757E2,3.029921E2,1.9554566E0,2.5254025E2,5.045185E1,1.847952E2,6.7745056E1,4.2965893E1,2.4779161E1],"tree_param":{"num_deleted":"0","num_feature":"2","num_nodes":"15","size_leaf_vector":"1"}},{"base_weights":[-1.17664054E-1,-9.005637E-2,3.0174994E0,2.9235956E-1,3.794188E0,3.8957527E-1,5.1566605E-3],"categories":[],"categories_nodes":[],"categories_segments":[],"categories_sizes":[],"default_left":[0,0,0,0,0,0,0],"id":3,"left_children":[1,-1,3,-1,5,-1,-1],"loss_changes":[7.2867573E3,0E0,3.217285E1,0E0,2.2844482E1,0E0,0E0],"parents":[2147483647,0,0,2,2,4,4],"right_children":[2,-1,4,-1,6,-1,-1],"split_conditions":[1E0,-9.005637E-2,2E0,2.9235956E-1,6E0,3.8957527E-1,5.1566605E-3],"split_indices":[1,0,1,0,1,0,0],"split_type":[0,0,0,0,0,0,0],"sum_hessian":[2.9666047E3,2.374394E3,5.9221075E2,5.325839E2,5.962684E1,5.8011642E1,1.6151977E0],"tree_param":{"num_deleted":"0","num_feature":"2","num_nodes":"7","size_leaf_vector":"1"}},{"base_weights":[-9.3080126E-2,-4.3905565E-1,8.9509016E-1,-1.8542707E-2,-4.770563E-2,7.184716E-2,1.0675005E0,1.0747638E0,-6.2177993E-2,1.145535E-1,9.56596E-1,9.612681E-1,3.67869E-2,9.201955E-2,1.1812537E-1],"categories":[],"categories_nodes":[],"categories_segments":[],"categories_sizes":[],"default_left":[0,0,0,0,0,0,0,0,0,0,0,0,0,0,0],"id":4,"left_children":[1,3,5,-1,-1,-1,7,9,-1,-1,11,13,-1,-1,-1],"loss_changes":[9.9329553E2,2.065033E1,2.2176575E1,0E0,0E0,0E0,5.321106E0,2.0650024E0,0E0,0E0,5.2474976E-2,2.3085022E-1,0E0,0E0,0E0],"parents":[2147483647,0,0,1,1,2,2,6,6,7,7,10,10,11,11],"right_children":[2,4,6,-1,-1,-1,8,10,-1,-1,12,14,-1,-1,-1],"split_conditions":[2E0,1E0,3E0,-1.8542707E-2,-4.770563E-2,7.184716E-2,3.8E1,5E0,-6.2177993E-2,1.145535E-1,2.4E1,1.1E1,3.67869E-2,9.201955E-2,1.1812537E-1],"split_indices":[0,0,0,0,0,0,0,0,0,0,0,0,0,0,0],"split_type":[0,0,0,0,0,0,0,0,0,0,0,0,0,0,0],"sum_hessian":[2.9032197E3,2.1507578E3,7.5246185E2,2.810198E2,1.8697379E3,3.742473E2,3.7821457E2,3.7695755E2,1.2570049E0,2.3032233E2,1.4663524E2,1.4485289E2,1.7823375E0,1.26430504E2,1.8422388E1],"tree_param":{"num_deleted":"0","num_feature":"2","num_nodes":"15","size_leaf_vector":"1"}},{"base_weights":[-9.056351E-2,-4.1807303E-1,7.3508394E-1,-1.6483799E-2,-4.572604E-2,5.686753E-2,8.93209E-1,8.9803547E-1,-2.6471654E-2,8.8706106E-1,1.542969E-1,8.947768E-1,-6.93335E-2,8.9786164E-2,1.9761333E-2],"categories":[],"categories_nodes":[],"categories_segments":[],"categories_sizes":[],"default_left":[0,0,0,0,0,0,0,0,0,0,0,0,0,0,0],"id":5,"left_children":[1,3,5,-1,-1,-1,7,9,-1,11,-1,13,-1,-1,-1],"loss_changes":[7.7980725E2,2.0412994E1,2.104477E1,0E0,0E0,0E0,2.5751648E0,1.5808105E0,0E0,5.64563E0,0E0,7.055054E-1,0E0,0E0,0E0],"parents":[2147483647,0,0,1,1,2,2,6,6,7,7,9,9,11,11],"right_children":[2,4,6,-1,-1,-1,8,10,-1,12,-1,14,-1,-1,-1],"split_conditions":[2E0,1E0,3E0,-1.6483799E-2,-4.572604E-2,5.686753E-2,3.2E1,1.9E1,-2.6471654E-2,1.7E1,1.542969E-1,1.5E1,-6.93335E-2,8.9786164E-2,1.9761333E-2],"split_indices":[0,0,0,0,0,0,0,0,0,0,0,0,0,0,0],"split_type":[0,0,0,0,0,0,0,0,0,0,0,0,0,0,0],"sum_hessian":[2.8816873E3,2.0636091E3,8.1807806E2,2.7724066E2,1.7863684E3,4.00838E2,4.1724005E2,4.1573163E2,1.5084316E0,4.1111145E2,4.6201806E0,4.095458E2,1.5656344E0,4.0745502E2,2.0907874E0],"tree_param":{"num_deleted":"0","num_feature":"2","num_nodes":"15","size_leaf_vector":"1"}},{"base_weights":[-7.7332474E-2,-8.7761655E-2,2.0942426E0,2.049026E-1,2.4548483E0,2.5063318E-1,4.2842206E-1,-1.3454941E-2,7.584311E-2],"categories":[],"categories_nodes":[],"categories_segments":[],"categories_sizes":[],"default_left":[0,0,0,0,0,0,0,0,0],"id":6,"left_children":[1,-1,3,-1,5,-1,7,-1,-1],"loss_changes":[4.989096E3,0E0,7.5756836E0,0E0,7.3858643E0,0E0,6.993946E-1,0E0,0E0],"parents":[2147483647,0,0,2,2,4,4,6,6],"right_children":[2,-1,4,-1,6,-1,8,-1,-1],"split_conditions":[1E0,-8.7761655E-2,2E0,2.049026E-1,5E0,2.5063318E-1,6E0,-1.3454941E-2,7.584311E-2],"split_indices":[1,0,1,0,1,0,1,0,0],"split_type":[0,0,0,0,0,0,0,0,0],"sum_hessian":[2.868742E3,2.0966616E3,7.720805E2,6.919928E2,8.008767E1,7.787241E1,2.2152538E0,1.0375516E0,1.1777021E0],"tree_param":{"num_deleted":"0","num_feature":"2","num_nodes":"9","size_leaf_vector":"1"}},{"base_weights":[-9.727998E-2,-4.0163437E-1,5.5376667E-1,-3.7296053E-2,-4.069967E-2,4.7056455E-2,6.268814E-1,6.2958056E-1,-2.0568548E-2,6.659673E-1,5.695024E-1,6.1139982E-2,7.600803E-2,5.410591E-1,7.2408384E-1,5.7449367E-2,2.4283042E-2,9.122031E-2,3.575687E-2],"categories":[],"categories_nodes":[],"categories_segments":[],"categories_sizes":[],"default_left":[0,0,0,0,0,0,0,0,0,0,0,0,0,0,0,0,0,0,0],"id":7,"left_children":[1,3,5,-1,-1,-1,7,9,-1,11,13,-1,-1,15,17,-1,-1,-1,-1],"loss_changes":[5.5755237E2,1.4303589E-1,5.1582947E0,0E0,0E0,0E0,1.1949615E0,6.543884E-1,0E0,1.0173264E0,4.227867E-1,0E0,0E0,1.4601326E0,1.4550982E0,0E0,0E0,0E0,0E0],"parents":[2147483647,0,0,1,1,2,2,6,6,7,7,9,9,10,10,13,13,14,14],"right_children":[2,4,6,-1,-1,-1,8,10,-1,12,14,-1,-1,16,18,-1,-1,-1,-1],"split_conditions":[2E0,1E0,3E0,-3.7296053E-2,-4.069967E-2,4.7056455E-2,3.8E1,5E0,-2.0568548E-2,4E0,1.1E1,6.1139982E-2,7.600803E-2,9E0,1.5E1,5.7449367E-2,2.4283042E-2,9.122031E-2,3.575687E-2],"split_indices":[0,0,0,0,0,0,0,0,0,0,0,0,0,0,0,0,0,0,0],"split_type":[0,0,0,0,0,0,0,0,0,0,0,0,0,0,0,0,0,0,0],"sum_hessian":[2.8116829E3,1.9162488E3,8.95434E2,3.13015E2,1.6032338E3,4.22303E2,4.7313098E2,4.718451E2,1.2859029E0,2.875832E2,1.842619E2,1.867819E2,1.0080128E2,1.5942708E2,2.4834827E1,1.4252246E2,1.6904625E1,1.5427552E1,9.407274E0],"tree_param":{"num_deleted":"0","num_feature":"2","num_nodes":"19","size_leaf_vector":"1"}},{"base_weights":[-8.696303E-2,-8.610981E-2,1.5675719E0,1.5700586E-1,2.6621878E-2],"categories":[],"categories_nodes":[],"categories_segments":[],"categories_sizes":[],"default_left":[0,0,0,0,0],"id":8,"left_children":[1,-1,3,-1,-1],"loss_changes":[3.555508E3,0E0,2.4450684E0,0E0,0E0],"parents":[2147483647,0,0,2,2],"right_children":[2,-1,4,-1,-1],"split_conditions":[1E0,-8.610981E-2,6E0,1.5700586E-1,2.6621878E-2],"split_indices":[1,0,1,0,0],"split_type":[0,0,0,0,0],"sum_hessian":[2.7738792E3,1.8900359E3,8.8384326E2,8.819515E2,1.8917987E0],"tree_param":{"num_deleted":"0","num_feature":"2","num_nodes":"5","size_leaf_vector":"1"}},{"base_weights":[-7.1635485E-2,-3.51113E-1,4.5863605E-1,-4.1646466E-2,-3.3629607E-2,4.7947717E-1,3.765252E-1,4.5310646E-1,6.327888E-2,3.301212E-1,6.351939E-1,4.266347E-2,5.0821085E-2,3.4949246E-1,-1.0153796E-2,6.905639E-1,-2.5824323E-2,2.5690475E-2,4.1379575E-2,7.714669E-2,4.9108592E-1,7.894732E-3,8.867584E-2],"categories":[],"categories_nodes":[],"categories_segments":[],"categories_sizes":[],"default_left":[0,0,0,0,0,0,0,0,0,0,0,0,0,0,0,0,0,0,0,0,0,0,0],"id":9,"left_children":[1,3,5,-1,-1,7,9,11,-1,13,15,-1,-1,17,-1,19,-1,-1,-1,-1,21,-1,-1],"loss_changes":[4.0176157E2,1.5788574E0,1.4207611E0,0E0,0E0,2.715744E0,2.1199055E0,7.126312E-1,0E0,1.4289055E0,1.5852032E0,0E0,0E0,8.445549E-1,0E0,5.7712555E-2,0E0,0E0,0E0,0E0,1.651566E0,0E0,0E0],"parents":[2147483647,0,0,1,1,2,2,5,5,6,6,7,7,9,9,10,10,13,13,15,15,20,20],"right_children":[2,4,6,-1,-1,8,10,12,-1,14,16,-1,-1,18,-1,20,-1,-1,-1,-1,22,-1,-1],"split_conditions":[2E0,1E0,5E0,-4.1646466E-2,-3.3629607E-2,4E0,1.1E1,3E0,6.327888E-2,1E1,3.8E1,4.266347E-2,5.0821085E-2,6E0,-1.0153796E-2,1.5E1,-2.5824323E-2,2.5690475E-2,4.1379575E-2,7.714669E-2,2.1E1,7.894732E-3,8.867584E-2],"split_indices":[0,0,0,0,0,0,0,0,0,0,0,0,0,0,0,0,0,0,0,0,0,0,0],"split_type":[0,0,0,0,0,0,0,0,0,0,0,0,0,0,0,0,0,0,0,0,0,0,0],"sum_hessian":[2.7088743E3,1.7741522E3,9.34722E2,3.2289233E2,1.4512599E3,7.416416E2,1.9308037E2,6.3617114E2,1.0547045E2,1.656413E2,2.743906E1,4.3563654E2,2.0053462E2,1.5870937E2,6.931939E0,2.6051605E1,1.3874552E0,6.709588E1,9.161348E1,1.6494463E1,9.557142E0,5.2687044E0,4.288438E0],"tree_param":{"num_deleted":"0","num_feature":"2","num_nodes":"23","size_leaf_vector":"1"}},{"base_weights":[-6.861639E-2,-3.26744E-1,3.848416E-1,-4.2579606E-2,-3.039335E-2,3.8659897E-1,-6.113739E-2,3.8029084E-1,5.818608E-1,3.8316032E-1,2.270349E-2,6.0194112E-2,2.054795E-2,3.9001253E-1,3.465768E-1,3.7557896E-2,4.0928733E-2,2.7816791E-2,4.0004272E-2],"categories":[],"categories_nodes":[],"categories_segments":[],"categories_sizes":[],"default_left":[0,0,0,0,0,0,0,0,0,0,0,0,0,0,0,0,0,0,0],"id":10,"left_children":[1,3,5,-1,-1,7,-1,9,11,13,-1,-1,-1,15,17,-1,-1,-1,-1],"loss_changes":[3.1737793E2,3.7743073E0,1.9584808E0,0E0,0E0,9.889679E-1,0E0,3.3283997E-1,9.444809E-2,9.938049E-2,0E0,0E0,0E0,6.330109E-2,4.6144295E-1,0E0,0E0,0E0,0E0],"parents":[2147483647,0,0,1,1,2,2,5,5,7,7,8,8,9,9,13,13,14,14],"right_children":[2,4,6,-1,-1,8,-1,10,12,14,-1,-1,-1,16,18,-1,-1,-1,-1],"split_conditions":[2E0,1E0,4.1E1,-4.2579606E-2,-3.039335E-2,1.1E1,-6.113739E-2,9E0,2.6E1,5E0,2.270349E-2,6.0194112E-2,2.054795E-2,3E0,6E0,3.7557896E-2,4.0928733E-2,2.7816791E-2,4.0004272E-2],"split_indices":[0,0,0,0,0,0,0,0,0,0,0,0,0,0,0,0,0,0,0],"split_type":[0,0,0,0,0,0,0,0,0,0,0,0,0,0,0,0,0,0,0],"sum_hessian":[2.7093984E3,1.7267424E3,9.8265594E2,3.1990857E2,1.4068339E3,9.815364E2,1.1195627E0,9.5367444E2,2.7861938E1,9.3467395E2,1.9000467E1,2.588183E1,1.980107E0,7.790872E2,1.5558675E2,4.5720306E2,3.2188416E2,7.0976265E1,8.461049E1],"tree_param":{"num_deleted":"0","num_feature":"2","num_nodes":"19","size_leaf_vector":"1"}},{"base_weights":[-6.391235E-2,-3.013857E-1,3.34678E-1,-3.4828164E-2,-2.9044092E-2,3.362677E-1,-5.9373725E-2,3.3308116E-1,7.3738076E-2,3.368198E-1,-3.5164005E-1,3.3130905E-1,6.0549963E-2,-1.0295211E-1,-5.2852195E-2,3.34481E-2,-1.3275403E-2,-3.4331825E-2,2.03927E-2],"categories":[],"categories_nodes":[],"categories_segments":[],"categories_sizes":[],"default_left":[0,0,0,0,0,0,0,0,0,0,0,0,0,0,0,0,0,0,0],"id":11,"left_children":[1,3,5,-1,-1,7,-1,9,-1,11,13,15,-1,17,-1,-1,-1,-1,-1],"loss_changes":[2.5334343E2,7.5964355E-1,1.6745911E0,0E0,0E0,1.0303574E0,0E0,2.6584625E0,0E0,1.2612839E0,2.0412809E-1,1.4718246E0,0E0,3.4181517E-1,0E0,0E0,0E0,0E0,0E0],"parents":[2147483647,0,0,1,1,2,2,5,5,7,7,9,9,10,10,11,11,13,13],"right_children":[2,4,6,-1,-1,8,-1,10,-1,12,14,16,-1,18,-1,-1,-1,-1,-1],"split_conditions":[2E0,1E0,4.1E1,-3.4828164E-2,-2.9044092E-2,2E1,-5.9373725E-2,1.5E1,7.3738076E-2,1.1E1,1.7E1,1E1,6.0549963E-2,1.6E1,-5.2852195E-2,3.34481E-2,-1.3275403E-2,-3.4331825E-2,2.03927E-2],"split_indices":[0,0,0,0,0,0,0,0,0,0,0,0,0,0,0,0,0,0,0],"split_type":[0,0,0,0,0,0,0,0,0,0,0,0,0,0,0,0,0,0,0],"sum_hessian":[2.6744387E3,1.6760942E3,9.983446E2,3.113237E2,1.3647705E3,9.972748E2,1.069815E0,9.912306E2,6.044188E0,9.8635315E2,4.877473E0,9.6871747E2,1.7635693E1,2.6848018E0,2.1926713E0,9.624184E2,6.2990584E0,1.4389716E0,1.2458303E0],"tree_param":{"num_deleted":"0","num_feature":"2","num_nodes":"19","size_leaf_vector":"1"}},{"base_weights":[-6.408134E-2,-8.415611E-2,1.2619362E0,1.2667488E0,5.732257E-1,1.2460964E-1,1.4273262E-1,6.498327E-2,1.1481066E-2],"categories":[],"categories_nodes":[],"categories_segments":[],"categories_sizes":[],"default_left":[0,0,0,0,0,0,0,0,0],"id":12,"left_children":[1,-1,3,5,7,-1,-1,-1,-1],"loss_changes":[2.7526885E3,0E0,2.5449219E0,1.46875E0,2.3003983E-1,0E0,0E0,0E0,0E0],"parents":[2147483647,0,0,2,2,3,3,4,4],"right_children":[2,-1,4,6,8,-1,-1,-1,-1],"split_conditions":[1E0,-8.415611E-2,4E0,2E0,6E0,1.2460964E-1,1.4273262E-1,6.498327E-2,1.1481066E-2],"split_indices":[1,0,1,1,1,0,0,0,0],"split_type":[0,0,0,0,0,0,0,0,0],"sum_hessian":[2.6680159E3,1.682113E3,9.859027E2,9.782277E2,7.6750116E0,8.745133E2,1.0371441E2,6.2182913E0,1.45672E0],"tree_param":{"num_deleted":"0","num_feature":"2","num_nodes":"9","size_leaf_vector":"1"}},{"base_weights":[-5.556636E-2,-8.283859E-2,1.0691353E0,1.0534992E-1,1.1869519E0,1.2187781E-1,6.567356E-2],"categories":[],"categories_nodes":[],"categories_segments":[],"categories_sizes":[],"default_left":[0,0,0,0,0,0,0],"id":13,"left_children":[1,-1,3,-1,5,-1,-1],"loss_changes":[2.2720159E3,0E0,7.105713E-1,0E0,1.1712646E0,0E0,0E0],"parents":[2147483647,0,0,2,2,4,4],"right_children":[2,-1,4,-1,6,-1,-1],"split_conditions":[1E0,-8.283859E-2,2E0,1.0534992E-1,4E0,1.2187781E-1,6.567356E-2],"split_indices":[1,0,1,0,1,0,0],"split_type":[0,0,0,0,0,0,0],"sum_hessian":[2.6119229E3,1.5482991E3,1.0636237E3,9.477804E2,1.1584332E2,1.0805849E2,7.78484E0],"tree_param":{"num_deleted":"0","num_feature":"2","num_nodes":"7","size_leaf_vector":"1"}},{"base_weights":[-6.718661E-2,-8.179651E-2,8.820102E-1,8.4997825E-2,1.1443825E0,1.1640004E-1,-2.9465837E-2],"categories":[],"categories_nodes":[],"categories_segments":[],"categories_sizes":[],"default_left":[0,0,0,0,0,0,0],"id":14,"left_children":[1,-1,3,-1,5,-1,-1],"loss_changes":[1.8210269E3,0E0,8.512207E0,0E0,3.7280273E0,0E0,0E0],"parents":[2147483647,0,0,2,2,4,4],"right_children":[2,-1,4,-1,6,-1,-1],"split_conditions":[1E0,-8.179651E-2,2E0,8.4997825E-2,7E0,1.1640004E-1,-2.9465837E-2],"split_indices":[1,0,1,0,1,0,0],"split_type":[0,0,0,0,0,0,0],"sum_hessian":[2.553325E3,1.4257496E3,1.1275753E3,1.0086701E3,1.1890518E2,1.17494545E2,1.4106336E0],"tree_param":{"num_deleted":"0","num_feature":"2","num_nodes":"7","size_leaf_vector":"1"}},{"base_weights":[-4.616622E-2,-7.93023E-2,7.9067415E-1,7.8043334E-2,8.663401E-1,9.051349E-2,6.8529464E-2],"categories":[],"categories_nodes":[],"categories_segments":[],"categories_sizes":[],"default_left":[0,0,0,0,0,0,0],"id":15,"left_children":[1,-1,3,-1,5,-1,-1],"loss_changes":[1.5559386E3,0E0,2.3364258E-1,0E0,2.9891968E-1,0E0,0E0],"parents":[2147483647,0,0,2,2,4,4],"right_children":[2,-1,4,-1,6,-1,-1],"split_conditions":[1E0,-7.93023E-2,2E0,7.8043334E-2,3E0,9.051349E-2,6.8529464E-2],"split_indices":[1,0,1,0,1,0,0],"split_type":[0,0,0,0,0,0,0],"sum_hessian":[2.487499E3,1.3144454E3,1.1730537E3,1.043181E3,1.2987265E2,1.0366059E2,2.6212055E1],"tree_param":{"num_deleted":"0","num_feature":"2","num_nodes":"7","size_leaf_vector":"1"}},{"base_weights":[-5.109895E-2,-7.770901E-2,6.7049015E-1,6.4828925E-2,8.527353E-1,8.609104E-2,8.570458E-3],"categories":[],"categories_nodes":[],"categories_segments":[],"categories_sizes":[],"default_left":[0,0,0,0,0,0,0],"id":16,"left_children":[1,-1,3,-1,5,-1,-1],"loss_changes":[1.2800925E3,0E0,4.4055786E0,0E0,7.408142E-1,0E0,0E0],"parents":[2147483647,0,0,2,2,4,4],"right_children":[2,-1,4,-1,6,-1,-1],"split_conditions":[1E0,-7.770901E-2,2E0,6.4828925E-2,7E0,8.609104E-2,8.570458E-3],"split_indices":[1,0,1,0,1,0,0],"split_type":[0,0,0,0,0,0,0],"sum_hessian":[2.4415486E3,1.2170236E3,1.224525E3,1.0956157E3,1.289094E2,1.2742884E2,1.4805502E0],"tree_param":{"num_deleted":"0","num_feature":"2","num_nodes":"7","size_leaf_vector":"1"}},{"base_weights":[-7.864315E-2,-7.24141E-2,4.0445026E-2,-9.753546E-3,1.7996566E-1,2.3672998E-1,-3.0113416E-2,2.7204594E-2,1.8835548E-1,-3.929086E-2,1.7923123E-1,1.7414458E-2,2.1278312E-2,-3.093866E-2,-3.656851E-2,5.0955015E-1,-7.407717E-2,-4.774241E-3,1.2347867E-2,8.091747E-3,6.6359475E-2,8.717053E-4,-2.2731127E-2],"categories":[],"categories_nodes":[],"categories_segments":[],"categories_sizes":[],"default_left":[0,0,0,0,0,0,0,0,0,0,0,0,0,0,0,0,0,0,0,0,0,0,0],"id":17,"left_children":[1,-1,3,-1,5,7,9,-1,11,13,15,-1,-1,17,-1,19,21,-1,-1,-1,-1,-1,-1],"loss_changes":[1.8376712E2,0E0,3.888298E1,0E0,1.1981995E1,1.2995453E0,4.191537E-1,0E0,7.989693E-2,5.511195E-1,8.065636E-1,0E0,0E0,5.307128E-1,0E0,2.1800566E-1,7.9035245E-2,0E0,0E0,0E0,0E0,0E0,0E0],"parents":[2147483647,0,0,2,2,4,4,5,5,6,6,8,8,9,9,10,10,13,13,15,15,16,16],"right_children":[2,-1,4,-1,6,8,10,-1,12,14,16,-1,-1,18,-1,20,22,-1,-1,-1,-1,-1,-1],"split_conditions":[1E0,-7.24141E-2,2E0,-9.753546E-3,5E0,3E0,1.9E1,2.7204594E-2,4E0,1.5E1,2.3E1,1.7414458E-2,2.1278312E-2,1.1E1,-3.656851E-2,2E1,3.8E1,-4.774241E-3,1.2347867E-2,8.091747E-3,6.6359475E-2,8.717053E-4,-2.2731127E-2],"split_indices":[0,0,0,0,0,0,0,0,0,0,0,0,0,0,0,0,0,0,0,0,0,0,0],"split_type":[0,0,0,0,0,0,0,0,0,0,0,0,0,0,0,0,0,0,0,0,0,0,0],"sum_hessian":[2.3892048E3,3.713395E2,2.0178652E3,1.0146836E3,1.0031817E3,7.8967975E2,2.135019E2,4.5377567E2,3.3590408E2,2.053135E2,8.188409E0,2.175009E2,1.184032E2,2.0125824E2,4.055268E0,3.1149173E0,5.073491E0,1.8212964E2,1.912859E1,1.2267479E0,1.8881693E0,3.9060943E0,1.1673968E0],"tree_param":{"num_deleted":"0","num_feature":"2","num_nodes":"23","size_leaf_vector":"1"}},{"base_weights":[-3.2910876E-2,-6.857961E-2,8.438434E-2,-2.4919289E-3,1.9236062E-1,2.3535866E-1,2.2334417E-2,2.6757881E-2,1.914837E-2,-1.3061087E-2,2.5158894E-1,1.4417439E-2,-2.2895983E-1,4.2578477E-1,7.245346E-2,-4.8251357E-4,1.8083362E-2,-1.7413083E-2,-2.9263545E-2,5.4126915E-2,2.7920062E-2,-2.5736963E-2,3.725098E-2],"categories":[],"categories_nodes":[],"categories_segments":[],"categories_sizes":[],"default_left":[0,0,0,0,0,0,0,0,0,0,0,0,0,0,0,0,0,0,0,0,0,0,0],"id":18,"left_children":[1,-1,3,-1,5,7,9,-1,-1,11,13,15,17,19,21,-1,-1,-1,-1,-1,-1,-1,-1],"loss_changes":[1.8375429E2,0E0,2.4014181E1,0E0,7.477234E0,1.1034355E0,1.6886117E0,0E0,0E0,1.076292E0,8.3747923E-1,5.1767004E-1,2.0543337E-2,8.422828E-2,1.5728338E0,0E0,0E0,0E0,0E0,0E0,0E0,0E0,0E0],"parents":[2147483647,0,0,2,2,4,4,5,5,6,6,9,9,10,10,11,11,12,12,13,13,14,14],"right_children":[2,-1,4,-1,6,8,10,-1,-1,12,14,16,18,20,22,-1,-1,-1,-1,-1,-1,-1,-1],"split_conditions":[1E0,-6.857961E-2,2E0,-2.4919289E-3,5E0,3E0,1.1E1,2.6757881E-2,1.914837E-2,9E0,1.4E1,8E0,1E1,1.2E1,1.9E1,-4.8251357E-4,1.8083362E-2,-1.7413083E-2,-2.9263545E-2,5.4126915E-2,2.7920062E-2,-2.5736963E-2,3.725098E-2],"split_indices":[0,0,0,0,0,0,0,0,0,0,0,0,0,0,0,0,0,0,0,0,0,0,0],"split_type":[0,0,0,0,0,0,0,0,0,0,0,0,0,0,0,0,0,0,0,0,0,0,0],"sum_hessian":[2.3977424E3,3.6442792E2,2.0333146E3,1.01082886E3,1.02248566E3,8.1579456E2,2.0669109E2,4.674314E2,3.483632E2,1.7986418E2,2.6826906E1,1.6038446E2,1.947972E1,1.2902909E1,1.3923997E1,1.4463179E2,1.5752658E1,1.2473688E1,7.0060315E0,5.7110147E0,7.191894E0,6.700759E0,7.223238E0],"tree_param":{"num_deleted":"0","num_feature":"2","num_nodes":"23","size_leaf_vector":"1"}},{"base_weights":[-4.389111E-2,-7.6384485E-2,6.024946E-1,6.058553E-1,1.23826034E-1,6.078187E-1,4.466407E-2,-1.8485187E-2,4.427296E-2,6.0111176E-2,6.682253E-2,7.981397E-3,-3.0514631E-2],"categories":[],"categories_nodes":[],"categories_segments":[],"categories_sizes":[],"default_left":[0,0,0,0,0,0,0,0,0,0,0,0,0],"id":19,"left_children":[1,-1,3,5,7,9,-1,11,-1,-1,-1,-1,-1],"loss_changes":[1.1137736E3,0E0,1.9536743E0,1.1999512E-1,4.6426207E-1,9.82666E-2,0E0,2.4720533E-1,0E0,0E0,0E0,0E0,0E0],"parents":[2147483647,0,0,2,2,3,3,4,4,5,5,7,7],"right_children":[2,-1,4,6,8,10,-1,12,-1,-1,-1,-1,-1],"split_conditions":[1E0,-7.6384485E-2,4E0,3E0,6E0,2E0,4.466407E-2,5E0,4.427296E-2,6.0111176E-2,6.682253E-2,7.981397E-3,-3.0514631E-2],"split_indices":[1,0,1,1,1,1,0,1,0,0,0,0,0],"split_type":[0,0,0,0,0,0,0,0,0,0,0,0,0],"sum_hessian":[2.39133E3,1.1312007E3,1.2601294E3,1.25108E3,9.049414E0,1.233056E3,1.802386E1,6.9085135E0,2.1409E0,1.1196876E3,1.13368484E2,5.681753E0,1.22676E0],"tree_param":{"num_deleted":"0","num_feature":"2","num_nodes":"13","size_leaf_vector":"1"}},{"base_weights":[-3.971095E-2,-7.474186E-2,5.348182E-1,5.3708994E-1,-1.8346977E-1,5.38336E-1,2.1844285E-2,-3.3487897E-2,1.066725E-2,5.2975923E-2,6.0967047E-2],"categories":[],"categories_nodes":[],"categories_segments":[],"categories_sizes":[],"default_left":[0,0,0,0,0,0,0,0,0,0,0],"id":20,"left_children":[1,-1,3,5,7,9,-1,-1,-1,-1,-1],"loss_changes":[9.5319135E2,0E0,2.209961E0,3.9465332E-1,2.4767968E-1,4.628296E-1,0E0,0E0,0E0,0E0,0E0],"parents":[2147483647,0,0,2,2,3,3,4,4,5,5],"right_children":[2,-1,4,6,8,10,-1,-1,-1,-1,-1],"split_conditions":[1E0,-7.474186E-2,5E0,4E0,9E0,2E0,2.1844285E-2,-3.3487897E-2,1.066725E-2,5.2975923E-2,6.0967047E-2],"split_indices":[1,0,1,1,1,1,0,0,0,0,0],"split_type":[0,0,0,0,0,0,0,0,0,0,0],"sum_hessian":[2.3423218E3,1.0493844E3,1.2929375E3,1.2891127E3,3.8248658E0,1.2834045E3,5.7080646E0,2.411992E0,1.4128739E0,1.1531807E3,1.3022395E2],"tree_param":{"num_deleted":"0","num_feature":"2","num_nodes":"11","size_leaf_vector":"1"}},{"base_weights":[-4.6006873E-2,-7.4098274E-2,8.8716015E-2,1.06853835E-1,-6.1292972E-2,5.8744373E-3,1.6166997E-1,-5.495419E-2,-6.69971E-2,2.1342397E-2,9.204239E-2,-6.1312035E-2,1.7213006E-1,9.960042E-3,7.7476664E-3,-5.152885E-2,-2.5541827E-1,3.4257155E-2,-1.5860513E-2,-6.52515E-3,1.0215513E-2,-4.8238005E-2,-1.0105488E-3],"categories":[],"categories_nodes":[],"categories_segments":[],"categories_sizes":[],"default_left":[0,0,0,0,0,0,0,0,0,0,0,0,0,0,0,0,0,0,0,0,0,0,0],"id":21,"left_children":[1,-1,3,5,7,-1,9,11,-1,-1,13,15,17,-1,-1,19,21,-1,-1,-1,-1,-1,-1],"loss_changes":[2.1668355E2,0E0,5.281701E0,4.552885E0,7.7253944E-1,0E0,2.8922672E0,3.11866E-1,0E0,0E0,3.0406952E-2,3.7375957E-1,3.8954937E-1,0E0,0E0,4.1839308E-1,5.2538264E-1,0E0,0E0,0E0,0E0,0E0,0E0],"parents":[2147483647,0,0,2,2,3,3,4,4,6,6,7,7,10,10,11,11,12,12,15,15,16,16],"right_children":[2,-1,4,6,8,-1,10,12,-1,-1,14,16,18,-1,-1,20,22,-1,-1,-1,-1,-1,-1],"split_conditions":[1E0,-7.4098274E-2,5E0,2E0,4.1E1,5.8744373E-3,3E0,2.1E1,-6.69971E-2,2.1342397E-2,4E0,1.4E1,2.8E1,9.960042E-3,7.7476664E-3,1.1E1,1.6E1,3.4257155E-2,-1.5860513E-2,-6.52515E-3,1.0215513E-2,-4.8238005E-2,-1.0105488E-3],"split_indices":[0,0,0,0,0,0,0,0,0,0,0,0,0,0,0,0,0,0,0,0,0,0,0],"split_type":[0,0,0,0,0,0,0,0,0,0,0,0,0,0,0,0,0,0,0,0,0,0,0],"sum_hessian":[2.3125723E3,3.747748E2,1.9377976E3,1.729026E3,2.0877156E2,9.2194836E2,8.0707764E2,2.0769887E2,1.0726949E0,4.6177576E2,3.453019E2,2.0275227E2,4.9465995E0,2.234945E2,1.21807396E2,1.942284E2,8.523875E0,3.2407298E0,1.7058699E0,1.7883536E2,1.5393034E1,3.925573E0,4.598302E0],"tree_param":{"num_deleted":"0","num_feature":"2","num_nodes":"23","size_leaf_vector":"1"}},{"base_weights":[-3.9610125E-2,-6.495051E-2,7.34172E-2,8.9563854E-2,-6.412316E-2,3.8226636E-3,1.4753187E-1,-5.798299E-2,-4.9864784E-2,1.6553812E-1,4.447913E-3,-6.845939E-2,3.565865E-1,1.8199936E-2,1.3040841E-2,-5.1869664E-2,-1.2957984E-1,4.4207305E-2,4.4390233E-3,-6.588243E-3,7.966791E-3,-2.3790097E-2,2.6437226E-3],"categories":[],"categories_nodes":[],"categories_segments":[],"categories_sizes":[],"default_left":[0,0,0,0,0,0,0,0,0,0,0,0,0,0,0,0,0,0,0,0,0,0,0],"id":22,"left_children":[1,-1,3,5,7,-1,9,11,-1,13,-1,15,17,-1,-1,19,21,-1,-1,-1,-1,-1,-1],"loss_changes":[1.5997572E2,0E0,4.3544636E0,5.210701E0,5.215364E-1,0E0,1.5196228E0,9.128903E-1,0E0,3.8114166E-1,0E0,1.9644278E-1,1.1924207E-1,0E0,0E0,2.9879382E-1,7.178918E-1,0E0,0E0,0E0,0E0,0E0,0E0],"parents":[2147483647,0,0,2,2,3,3,4,4,6,6,7,7,9,9,11,11,12,12,15,15,16,16],"right_children":[2,-1,4,6,8,-1,10,12,-1,14,-1,16,18,-1,-1,20,22,-1,-1,-1,-1,-1,-1],"split_conditions":[1E0,-6.495051E-2,5E0,2E0,3.2E1,3.8226636E-3,4E0,2.1E1,-4.9864784E-2,3E0,4.447913E-3,9E0,2.6E1,1.8199936E-2,1.3040841E-2,8E0,1.2E1,4.4207305E-2,4.4390233E-3,-6.588243E-3,7.966791E-3,-2.3790097E-2,2.6437226E-3],"split_indices":[0,0,0,0,0,0,0,0,0,0,0,0,0,0,0,0,0,0,0,0,0,0,0],"split_type":[0,0,0,0,0,0,0,0,0,0,0,0,0,0,0,0,0,0,0,0,0,0,0],"sum_hessian":[2.3189897E3,3.618269E2,1.9571628E3,1.7518518E3,2.0531107E2,9.299423E2,8.219094E2,2.0356793E2,1.7431333E0,6.991429E2,1.22766556E2,1.9936475E2,4.2031913E0,4.732191E2,2.2592381E2,1.5825795E2,4.110679E1,2.9730825E0,1.2301089E0,1.4347285E2,1.4785101E1,2.395218E1,1.7154606E1],"tree_param":{"num_deleted":"0","num_feature":"2","num_nodes":"23","size_leaf_vector":"1"}},{"base_weights":[-2.6080819E-2,-7.170063E-2,4.8413643E-1,4.7300927E-2,5.750245E-1,5.7919692E-2,9.967773E-3],"categories":[],"categories_nodes":[],"categories_segments":[],"categories_sizes":[],"default_left":[0,0,0,0,0,0,0],"id":23,"left_children":[1,-1,3,-1,5,-1,-1],"loss_changes":[8.2097345E2,0E0,1.0828247E0,0E0,2.2287369E-1,0E0,0E0],"parents":[2147483647,0,0,2,2,4,4],"right_children":[2,-1,4,-1,6,-1,-1],"split_conditions":[1E0,-7.170063E-2,2E0,4.7300927E-2,7E0,5.7919692E-2,9.967773E-3],"split_indices":[1,0,1,0,1,0,0],"split_type":[0,0,0,0,0,0,0],"sum_hessian":[2.3268718E3,9.882284E2,1.3386434E3,1.1981602E3,1.4048326E2,1.3904431E2,1.4389578E0],"tree_param":{"num_deleted":"0","num_feature":"2","num_nodes":"7","size_leaf_vector":"1"}},{"base_weights":[-4.1097913E-2,-6.930541E-2,4.025321E-1,4.0349077E-2,4.7414057E-2,-3.819362E-2,3.547811E-2],"categories":[],"categories_nodes":[],"categories_segments":[],"categories_sizes":[],"default_left":[0,0,0,0,0,0,0],"id":24,"left_children":[1,-1,3,-1,5,-1,-1],"loss_changes":[6.599299E2,0E0,4.431305E-1,0E0,7.6749414E-1,0E0,0E0],"parents":[2147483647,0,0,2,2,4,4],"right_children":[2,-1,4,-1,6,-1,-1],"split_conditions":[1E0,-6.930541E-2,5E0,4.0349077E-2,6E0,-3.819362E-2,3.547811E-2],"split_indices":[1,0,1,0,1,0,0],"split_type":[0,0,0,0,0,0,0],"sum_hessian":[2.2797349E3,9.2289355E2,1.3568414E3,1.3530525E3,3.7889624E0,1.4795811E0,2.3093812E0],"tree_param":{"num_deleted":"0","num_feature":"2","num_nodes":"7","size_leaf_vector":"1"}},{"base_weights":[-2.9531857E-2,-6.857557E-2,9.940243E-2,1.2413774E-1,-1.0607373E-1,1.4473012E-1,4.4664737E-2,-9.8894194E-2,-7.095434E-2,9.935123E-3,2.2878453E-2,2.3244966E-3,8.581364E-3,-1.0932932E-1,2.897241E-1,-1.8469302E-2,-6.6701405E-2,4.9942885E-2,7.8962095E-2,-4.431801E-4,-1.8243521E-2,-2.9202754E-2,4.766057E-2],"categories":[],"categories_nodes":[],"categories_segments":[],"categories_sizes":[],"default_left":[0,0,0,0,0,0,0,0,0,0,0,0,0,0,0,0,0,0,0,0,0,0,0],"id":25,"left_children":[1,-1,3,5,7,9,11,13,-1,-1,-1,-1,-1,15,17,-1,19,-1,21,-1,-1,-1,-1],"loss_changes":[1.8946632E2,0E0,9.526478E0,2.728386E0,8.035214E-1,5.037977E0,3.02392E-1,8.4453464E-1,0E0,0E0,0E0,0E0,0E0,6.171224E-1,2.0433867E-1,0E0,9.1234756E-1,0E0,7.202154E-1,0E0,0E0,0E0,0E0],"parents":[2147483647,0,0,2,2,3,3,4,4,5,5,6,6,7,7,13,13,14,14,16,16,18,18],"right_children":[2,-1,4,6,8,10,12,14,-1,-1,-1,-1,-1,16,18,-1,20,-1,22,-1,-1,-1,-1],"split_conditions":[1E0,-6.857557E-2,5E0,3E0,4.1E1,2E0,4E0,2.1E1,-7.095434E-2,9.935123E-3,2.2878453E-2,2.3244966E-3,8.581364E-3,6E0,2.5E1,-1.8469302E-2,9E0,4.9942885E-2,3E1,-4.431801E-4,-1.8243521E-2,-2.9202754E-2,4.766057E-2],"split_indices":[0,0,0,0,0,0,0,0,0,0,0,0,0,0,0,0,0,0,0,0,0,0,0],"split_type":[0,0,0,0,0,0,0,0,0,0,0,0,0,0,0,0,0,0,0,0,0,0,0],"sum_hessian":[2.2374907E3,3.667191E2,1.8707717E3,1.6701182E3,2.0065364E2,1.3257734E3,3.4434467E2,1.994447E2,1.2089367E0,8.6237854E2,4.633949E2,2.274908E2,1.1685387E2,1.9492917E2,4.5155387E0,6.921983E1,1.25709335E2,1.5769078E0,2.9386308E0,8.240845E1,4.330088E1,1.6576747E0,1.2809563E0],"tree_param":{"num_deleted":"0","num_feature":"2","num_nodes":"23","size_leaf_vector":"1"}},{"base_weights":[-1.6419755E-2,-6.7468606E-2,3.962122E-1,3.8423855E-2,4.9248922E-1,4.9772403E-1,-1.4087965E-2,5.2065562E-2,3.8404427E-2],"categories":[],"categories_nodes":[],"categories_segments":[],"categories_sizes":[],"default_left":[0,0,0,0,0,0,0,0,0],"id":26,"left_children":[1,-1,3,-1,5,7,-1,-1,-1],"loss_changes":[6.134447E2,0E0,1.4111481E0,0E0,5.674782E-1,1.8845749E-1,0E0,0E0,0E0],"parents":[2147483647,0,0,2,2,4,4,5,5],"right_children":[2,-1,4,-1,6,8,-1,-1,-1],"split_conditions":[1E0,-6.7468606E-2,2E0,3.8423855E-2,1E1,3E0,-1.4087965E-2,5.2065562E-2,3.8404427E-2],"split_indices":[1,0,1,0,1,1,0,0,0],"split_type":[0,0,0,0,0,0,0,0,0],"sum_hessian":[2.2564683E3,8.692039E2,1.3872645E3,1.2382574E3,1.4900702E2,1.4799799E2,1.0090402E0,1.2017591E2,2.782207E1],"tree_param":{"num_deleted":"0","num_feature":"2","num_nodes":"9","size_leaf_vector":"1"}},{"base_weights":[-1.4725247E-2,-6.787049E-2,3.6802503E-1,3.6262166E-2,4.1084713E-1,3.987401E-1,5.3118568E-2,4.153648E-2,2.7586821E-2],"categories":[],"categories_nodes":[],"categories_segments":[],"categories_sizes":[],"default_left":[0,0,0,0,0,0,0,0,0],"id":27,"left_children":[1,-1,3,-1,5,7,-1,-1,-1],"loss_changes":[5.658516E2,0E0,1.7782593E-1,0E0,7.8029633E-3,1.7336082E-1,0E0,0E0,0E0],"parents":[2147483647,0,0,2,2,4,4,5,5],"right_children":[2,-1,4,-1,6,8,-1,-1,-1],"split_conditions":[1E0,-6.787049E-2,2E0,3.6262166E-2,4E0,3E0,5.3118568E-2,4.153648E-2,2.7586821E-2],"split_indices":[1,0,1,0,1,1,0,0,0],"split_type":[0,0,0,0,0,0,0,0,0],"sum_hessian":[2.2245667E3,8.1315875E2,1.4114078E3,1.2616752E3,1.4973268E2,1.3996461E2,9.7680645E0,1.21187386E2,1.8777239E1],"tree_param":{"num_deleted":"0","num_feature":"2","num_nodes":"9","size_leaf_vector":"1"}},{"base_weights":[-2.3097323E-2,-6.4739086E-2,3.1081018E-1,3.1103209E-2,6.1648423E-3],"categories":[],"categories_nodes":[],"categories_segments":[],"categories_sizes":[],"default_left":[0,0,0,0,0],"id":28,"left_children":[1,-1,3,-1,-1],"loss_changes":[4.5469568E2,0E0,5.9417725E-2,0E0,0E0],"parents":[2147483647,0,0,2,2],"right_children":[2,-1,4,-1,-1],"split_conditions":[1E0,-6.4739086E-2,7E0,3.1103209E-2,6.1648423E-3],"split_indices":[1,0,1,0,0],"split_type":[0,0,0,0,0],"sum_hessian":[2.1792866E3,7.5909607E2,1.4201906E3,1.4186787E3,1.5118184E0],"tree_param":{"num_deleted":"0","num_feature":"2","num_nodes":"5","size_leaf_vector":"1"}},{"base_weights":[-1.7849596E-2,-6.962141E-2,1.19230404E-1,1.9619274E-1,-5.7920516E-2,2.0800855E-2,1.754773E-2,-5.9548565E-3,-1.4928643E-1,1.3987697E-3,-4.404806E-3,-1.7438331E-1,-2.6279815E-2,-1.4764836E-1,-2.2398646E-1,1.2075645E-2,-3.400877E-1,-1.8439693E-2,-7.9964595E-3,-2.7525652E-2,-1.5897421E-2,-5.0046933E-3,2.5876587E-2,-4.669187E-2,-9.8536275E-3],"categories":[],"categories_nodes":[],"categories_segments":[],"categories_sizes":[],"default_left":[0,0,0,0,0,0,0,0,0,0,0,0,0,0,0,0,0,0,0,0,0,0,0,0,0],"id":29,"left_children":[1,-1,3,5,7,-1,-1,9,11,-1,-1,13,15,17,19,21,23,-1,-1,-1,-1,-1,-1,-1,-1],"loss_changes":[1.9990733E2,0E0,2.4395584E1,2.687378E-1,2.5745869E0,0E0,0E0,2.640876E-1,6.0241604E-1,0E0,0E0,1.8325996E-1,4.1931647E-1,2.562003E-1,1.4022112E-1,4.9883312E-1,7.014713E-2,0E0,0E0,0E0,0E0,0E0,0E0,0E0,0E0],"parents":[2147483647,0,0,2,2,3,3,4,4,7,7,8,8,11,11,12,12,13,13,14,14,15,15,16,16],"right_children":[2,-1,4,6,8,-1,-1,10,12,-1,-1,14,16,18,20,22,24,-1,-1,-1,-1,-1,-1,-1,-1],"split_conditions":[1E0,-6.962141E-2,3E0,2E0,5E0,2.0800855E-2,1.754773E-2,4E0,1E1,1.3987697E-3,-4.404806E-3,7E0,2.6E1,6E0,8E0,1.7E1,3.7E1,-1.8439693E-2,-7.9964595E-3,-2.7525652E-2,-1.5897421E-2,-5.0046933E-3,2.5876587E-2,-4.669187E-2,-9.8536275E-3],"split_indices":[0,0,0,0,0,0,0,0,0,0,0,0,0,0,0,0,0,0,0,0,0,0,0,0,0],"split_type":[0,0,0,0,0,0,0,0,0,0,0,0,0,0,0,0,0,0,0,0,0,0,0,0,0],"sum_hessian":[2.147875E3,3.6038208E2,1.7874929E3,1.2460466E3,5.4144635E2,7.87708E2,4.5833865E2,3.4582092E2,1.956254E2,2.2740347E2,1.18417465E2,1.6212878E2,3.3496613E1,1.0793234E2,5.419644E1,3.0705164E1,2.791448E0,6.8834564E1,3.9097775E1,2.8492632E1,2.570381E1,2.5165108E1,5.540057E0,1.2186006E0,1.5728474E0],"tree_param":{"num_deleted":"0","num_feature":"2","num_nodes":"25","size_leaf_vector":"1"}},{"base_weights":[-1.08221555E-2,-6.469843E-2,1.1442811E-1,1.4612375E-1,-3.7278015E-2,1.583054E-1,7.6912516E-3,-1.266128E-2,-1.731047E-1,1.6582603E-2,1.4485905E-2,3.6799435E-3,-5.0468113E-2,-1.4537728E-1,-7.098356E-2,-6.6236205E-2,8.733643E-3,-1.5621908E-1,1.6835248E-2,-8.45116E-3,-4.622731E-3,-1.2626133E-2,-2.5500206E-2],"categories":[],"categories_nodes":[],"categories_segments":[],"categories_sizes":[],"default_left":[0,0,0,0,0,0,0,0,0,0,0,0,0,0,0,0,0,0,0,0,0,0,0],"id":30,"left_children":[1,-1,3,5,7,9,-1,11,13,-1,-1,-1,15,17,-1,19,-1,21,-1,-1,-1,-1,-1],"loss_changes":[1.7198648E2,0E0,8.6773815E0,1.2457485E0,1.0426097E0,1.04185104E-1,0E0,4.985408E-1,6.091299E-1,0E0,0E0,0E0,3.3381522E-1,1.8538523E-1,0E0,4.583609E-2,0E0,1.03123665E-1,0E0,0E0,0E0,0E0,0E0],"parents":[2147483647,0,0,2,2,3,3,4,4,5,5,7,7,8,8,12,12,13,13,15,15,17,17],"right_children":[2,-1,4,6,8,10,-1,12,14,-1,-1,-1,16,18,-1,20,-1,22,-1,-1,-1,-1,-1],"split_conditions":[1E0,-6.469843E-2,4E0,3E0,9E0,2E0,7.6912516E-3,5E0,3.8E1,1.6582603E-2,1.4485905E-2,3.6799435E-3,8E0,3E1,-7.098356E-2,6E0,8.733643E-3,1.5E1,1.6835248E-2,-8.45116E-3,-4.622731E-3,-1.2626133E-2,-2.5500206E-2],"split_indices":[0,0,0,0,0,0,0,0,0,0,0,0,0,0,0,0,0,0,0,0,0,0,0],"split_type":[0,0,0,0,0,0,0,0,0,0,0,0,0,0,0,0,0,0,0,0,0,0,0],"sum_hessian":[2.15655E3,3.540614E2,1.8024885E3,1.4910115E3,3.1147708E2,1.2667649E3,2.2424657E2,2.6461282E2,4.686425E1,8.051232E2,4.6164166E2,1.146495E2,1.4996333E2,4.5770603E1,1.0936452E0,1.3503186E2,1.4931482E1,4.4726997E1,1.0436074E0,6.888818E1,6.614368E1,3.606714E1,8.659858E0],"tree_param":{"num_deleted":"0","num_feature":"2","num_nodes":"23","size_leaf_vector":"1"}},{"base_weights":[-3.193691E-2,-6.062567E-2,8.120359E-2,1.2994906E-1,-3.49635E-2,1.5271748E-2,8.999848E-3,-1.4153659E-2,-1.4084958E-1,-1.9335967E-3,-5.086954E-2,-2.731855E-2,-8.269354E-2,5.749696E-4,-1.5689157E-3,-5.7692993E-3,-3.7773033E-3,1.0046591E-2,-1.487373E-1,-2.2496138E-2,-8.082156E-3],"categories":[],"categories_nodes":[],"categories_segments":[],"categories_sizes":[],"default_left":[0,0,0,0,0,0,0,0,0,0,0,0,0,0,0,0,0,0,0,0,0],"id":31,"left_children":[1,-1,3,5,7,-1,-1,9,11,13,15,-1,17,-1,-1,-1,-1,-1,19,-1,-1],"loss_changes":[1.41686E2,0E0,1.032118E1,1.1538124E0,1.1863551E0,0E0,0E0,2.0262778E-1,6.582835E-1,3.602902E-2,7.900149E-3,0E0,7.7574897E-1,0E0,0E0,0E0,0E0,0E0,2.2320986E-1,0E0,0E0],"parents":[2147483647,0,0,2,2,3,3,4,4,7,7,8,8,9,9,10,10,12,12,18,18],"right_children":[2,-1,4,6,8,-1,-1,10,12,14,16,-1,18,-1,-1,-1,-1,-1,20,-1,-1],"split_conditions":[1E0,-6.062567E-2,3E0,2E0,7E0,1.5271748E-2,8.999848E-3,5E0,8E0,4E0,6E0,-2.731855E-2,9E0,5.749696E-4,-1.5689157E-3,-5.7692993E-3,-3.7773033E-3,1.0046591E-2,1.1E1,-2.2496138E-2,-8.082156E-3],"split_indices":[0,0,0,0,0,0,0,0,0,0,0,0,0,0,0,0,0,0,0,0,0],"split_type":[0,0,0,0,0,0,0,0,0,0,0,0,0,0,0,0,0,0,0,0,0],"sum_hessian":[2.1787373E3,3.5785385E2,1.8208835E3,1.2825763E3,5.3830725E2,8.151742E2,4.674021E2,4.508376E2,8.746966E1,3.3904626E2,1.11791336E2,2.5575146E1,6.1894512E1,2.1791171E2,1.21134544E2,7.125915E1,4.053219E1,1.6265137E1,4.5629375E1,2.0410095E1,2.521928E1],"tree_param":{"num_deleted":"0","num_feature":"2","num_nodes":"21","size_leaf_vector":"1"}},{"base_weights":[-1.762328E-2,-6.3651286E-2,3.0471134E-1,3.0094925E-1,4.7741705E-1,2.9629363E-2,3.4771588E-2,5.882425E-2,2.2303401E-1,2.77189E-1,-1.4087125E-2,1.322572E-1,6.793118E-2,1.641359E-2,-6.373119E-4],"categories":[],"categories_nodes":[],"categories_segments":[],"categories_sizes":[],"default_left":[0,0,0,0,0,0,0,0,0,0,0,0,0,0,0],"id":32,"left_children":[1,-1,3,5,7,-1,-1,-1,9,11,-1,13,-1,-1,-1],"loss_changes":[4.346455E2,0E0,7.871704E-1,2.0285034E-1,6.8179035E-1,0E0,0E0,0E0,2.4324828E-1,4.554503E-1,0E0,3.692837E-2,0E0,0E0,0E0],"parents":[2147483647,0,0,2,2,3,3,4,4,8,8,9,9,11,11],"right_children":[2,-1,4,6,8,-1,-1,-1,10,12,-1,14,-1,-1,-1],"split_conditions":[1E0,-6.3651286E-2,3E0,2E0,4E0,2.9629363E-2,3.4771588E-2,5.882425E-2,1E1,6E0,-1.4087125E-2,5E0,6.793118E-2,1.641359E-2,-6.373119E-4],"split_indices":[1,0,1,1,1,0,0,0,1,1,0,1,0,0,0],"split_type":[0,0,0,0,0,0,0,0,0,0,0,0,0,0,0],"sum_hessian":[2.1768164E3,7.451457E2,1.4316708E3,1.4038334E3,2.7837477E1,1.2834059E3,1.2042749E2,1.8475811E1,9.361667E0,8.356394E0,1.005273E0,7.1193557E0,1.2370378E0,5.6387224E0,1.4806334E0],"tree_param":{"num_deleted":"0","num_feature":"2","num_nodes":"15","size_leaf_vector":"1"}},{"base_weights":[-2.342851E-2,-5.873843E-2,8.567906E-2,1.1039476E-1,-1.17286526E-1,1.5091575E-2,7.013241E-2,-1.2669569E-1,8.1582576E-2,9.1815675E-3,4.015501E-2,-1.1604715E-1,-6.256412E-2,3.8534945E-1,-4.0613642E-1,4.3324386E-3,3.382579E-3,-1.3118766E-1,1.375805E-1,8.737798E-4,5.2445704E-1,-5.1737636E-2,-1.5870793E-2,-1.7609078E-2,-1.0169628E-2,2.8872252E-2,1.9758383E-3,6.960239E-2,2.1381795E-2],"categories":[],"categories_nodes":[],"categories_segments":[],"categories_sizes":[],"default_left":[0,0,0,0,0,0,0,0,0,0,0,0,0,0,0,0,0,0,0,0,0,0,0,0,0,0,0,0,0],"id":33,"left_children":[1,-1,3,5,7,-1,9,11,13,-1,15,17,-1,19,21,-1,-1,23,25,-1,27,-1,-1,-1,-1,-1,-1,-1,-1],"loss_changes":[1.3293793E2,0E0,9.094883E0,2.6232967E0,3.7898898E-1,0E0,5.239005E-1,9.289365E-1,1.5652349E0,0E0,5.403936E-3,7.3151064E-1,0E0,3.292653E-1,3.1733155E-2,0E0,0E0,2.1494985E-1,1.8937135E-1,0E0,9.8287344E-2,0E0,0E0,0E0,0E0,0E0,0E0,0E0,0E0],"parents":[2147483647,0,0,2,2,3,3,4,4,6,6,7,7,8,8,10,10,11,11,13,13,14,14,17,17,18,18,20,20],"right_children":[2,-1,4,6,8,-1,10,12,14,-1,16,18,-1,20,22,-1,-1,24,26,-1,28,-1,-1,-1,-1,-1,-1,-1,-1],"split_conditions":[1E0,-5.873843E-2,5E0,2E0,1.8E1,1.5091575E-2,3E0,1.5E1,2.6E1,9.1815675E-3,4E0,1.2E1,-6.256412E-2,2E1,3.7E1,4.3324386E-3,3.382579E-3,6E0,1.3E1,8.737798E-4,2.3E1,-5.1737636E-2,-1.5870793E-2,-1.7609078E-2,-1.0169628E-2,2.8872252E-2,1.9758383E-3,6.960239E-2,2.1381795E-2],"split_indices":[0,0,0,0,0,0,0,0,0,0,0,0,0,0,0,0,0,0,0,0,0,0,0,0,0,0,0,0,0],"split_type":[0,0,0,0,0,0,0,0,0,0,0,0,0,0,0,0,0,0,0,0,0,0,0,0,0,0,0,0,0],"sum_hessian":[2.1586558E3,3.4922037E2,1.8094355E3,1.6134208E3,1.9601477E2,8.027579E2,8.1066284E2,1.8750613E2,8.508628E0,4.6921048E2,3.4145233E2,1.8479482E2,2.7113233E0,5.372413E0,3.136215E0,2.2362585E2,1.17826485E2,1.7484033E2,9.954485E0,1.7358068E0,3.6366065E0,1.4108881E0,1.7253269E0,6.733945E1,1.07500885E2,3.725248E0,6.2292366E0,1.5435048E0,2.0931015E0],"tree_param":{"num_deleted":"0","num_feature":"2","num_nodes":"29","size_leaf_vector":"1"}},{"base_weights":[-1.09315915E-2,-6.2634096E-2,2.8709882E-1,2.8779837E-1,-2.6787192E-2,2.866458E-1,7.345557E-2,2.883984E-2,1.8387996E-2],"categories":[],"categories_nodes":[],"categories_segments":[],"categories_sizes":[],"default_left":[0,0,0,0,0,0,0,0,0],"id":34,"left_children":[1,-1,3,5,-1,7,-1,-1,-1],"loss_changes":[3.9792975E2,0E0,6.4460754E-1,5.414276E-1,0E0,2.0961761E-1,0E0,0E0,0E0],"parents":[2147483647,0,0,2,2,3,3,5,5],"right_children":[2,-1,4,6,-1,8,-1,-1,-1],"split_conditions":[1E0,-6.2634096E-2,7E0,5E0,-2.6787192E-2,3E0,7.345557E-2,2.883984E-2,1.8387996E-2],"split_indices":[1,0,1,1,0,1,0,0,0],"split_type":[0,0,0,0,0,0,0,0,0],"sum_hessian":[2.16763E3,7.068789E2,1.460751E3,1.4593927E3,1.3582207E0,1.4572748E3,2.1179757E0,1.431063E3,2.6211704E1],"tree_param":{"num_deleted":"0","num_feature":"2","num_nodes":"9","size_leaf_vector":"1"}},{"base_weights":[-2.5963217E-2,-5.4242063E-2,7.3220395E-2,1.8988548E-2,-1.9257687E-2,4.952553E-3,-7.797833E-2,-7.307339E-2,-6.7425884E-2,-7.704458E-2,3.541134E-2,-5.4429616E-3,-1.1779222E-2],"categories":[],"categories_nodes":[],"categories_segments":[],"categories_sizes":[],"default_left":[0,0,0,0,0,0,0,0,0,0,0,0,0],"id":35,"left_children":[1,-1,3,-1,5,-1,7,9,-1,11,-1,-1,-1],"loss_changes":[1.09539314E2,0E0,1.9360659E1,0E0,4.049832E0,0E0,1.5323613E0,9.3910074E-1,0E0,4.850831E-1,0E0,0E0,0E0],"parents":[2147483647,0,0,2,2,4,4,6,6,7,7,9,9],"right_children":[2,-1,4,-1,6,-1,8,10,-1,12,-1,-1,-1],"split_conditions":[1E0,-5.4242063E-2,2E0,1.8988548E-2,3E0,4.952553E-3,2.6E1,1.9E1,-6.7425884E-2,5E0,3.541134E-2,-5.4429616E-3,-1.1779222E-2],"split_indices":[0,0,0,0,0,0,0,0,0,0,0,0,0],"split_type":[0,0,0,0,0,0,0,0,0,0,0,0,0],"sum_hessian":[2.1366572E3,3.4350882E2,1.7931483E3,7.924213E2,1.000727E3,4.6094702E2,5.3977997E2,5.364894E2,3.2905612E0,5.323601E2,4.129248E0,3.438558E2,1.8850433E2],"tree_param":{"num_deleted":"0","num_feature":"2","num_nodes":"13","size_leaf_vector":"1"}},{"base_weights":[1.5714495E-2,-5.7691086E-2,2.8733402E-1,2.8851026E-1,-6.3900396E-2,2.915196E-1,1.2788835E-1,2.86011E-2,3.471347E-2,2.2685877E-3,3.346896E-2],"categories":[],"categories_nodes":[],"categories_segments":[],"categories_sizes":[],"default_left":[0,0,0,0,0,0,0,0,0,0,0],"id":36,"left_children":[1,-1,3,5,-1,7,9,-1,-1,-1,-1],"loss_changes":[3.4472632E2,0E0,1.7843857E0,6.7196655E-1,0E0,3.417282E-1,6.18256E-1,0E0,0E0,0E0,0E0],"parents":[2147483647,0,0,2,2,3,3,5,5,6,6],"right_children":[2,-1,4,6,-1,8,10,-1,-1,-1,-1],"split_conditions":[1E0,-5.7691086E-2,7E0,3E0,-6.3900396E-2,2E0,4E0,2.86011E-2,3.471347E-2,2.2685877E-3,3.346896E-2],"split_indices":[1,0,1,1,0,1,1,0,0,0,0],"split_type":[0,0,0,0,0,0,0,0,0,0,0],"sum_hessian":[2.139545E3,6.7207446E2,1.4674706E3,1.4662972E3,1.1733009E0,1.4385305E3,2.7766706E1,1.3144762E3,1.2405438E2,1.9139763E1,8.626944E0],"tree_param":{"num_deleted":"0","num_feature":"2","num_nodes":"11","size_leaf_vector":"1"}},{"base_weights":[-3.6560155E-3,-5.6782324E-2,2.3792939E-1,2.3832132E-1,-1.5836759E-2,2.3793046E-1,4.0855736E-2,2.3832616E-1,-7.818858E-3,2.3859169E-1,1.3833523E-2,2.3767753E-2,2.9677926E-2],"categories":[],"categories_nodes":[],"categories_segments":[],"categories_sizes":[],"default_left":[0,0,0,0,0,0,0,0,0,0,0,0,0],"id":37,"left_children":[1,-1,3,5,-1,7,-1,9,-1,11,-1,-1,-1],"loss_changes":[2.8926797E2,0E0,2.6856232E-1,1.6021729E-3,0E0,2.0426178E-1,0E0,6.3476562E-3,0E0,8.033752E-3,0E0,0E0,0E0],"parents":[2147483647,0,0,2,2,3,3,5,5,7,7,9,9],"right_children":[2,-1,4,6,-1,8,-1,10,-1,12,-1,-1,-1],"split_conditions":[1E0,-5.6782324E-2,1E1,6E0,-1.5836759E-2,5E0,4.0855736E-2,4E0,-7.818858E-3,3E0,1.3833523E-2,2.3767753E-2,2.9677926E-2],"split_indices":[1,0,1,1,0,1,0,1,0,1,0,0,0],"split_type":[0,0,0,0,0,0,0,0,0,0,0,0,0],"sum_hessian":[2.120382E3,6.3534033E2,1.4850419E3,1.4839728E3,1.0690106E0,1.4829656E3,1.0072184E0,1.4813574E3,1.60818E0,1.4760515E3,5.3058815E0,1.4582264E3,1.782509E1],"tree_param":{"num_deleted":"0","num_feature":"2","num_nodes":"13","size_leaf_vector":"1"}},{"base_weights":[-2.4398934E-2,-5.6057997E-2,1.8870634E-1,1.859338E-2,3.2261845E-1,3.494478E-2,1.2934154E-1,2.1655513E-2,2.7023628E-2,1.0669463E-2,-1.1273386E-2],"categories":[],"categories_nodes":[],"categories_segments":[],"categories_sizes":[],"default_left":[0,0,0,0,0,0,0,0,0,0,0],"id":38,"left_children":[1,-1,3,-1,5,-1,7,9,-1,-1,-1],"loss_changes":[2.4157991E2,0E0,5.017586E-1,0E0,1.0689187E-1,0E0,7.2478935E-2,5.7893932E-2,0E0,0E0,0E0],"parents":[2147483647,0,0,2,2,4,4,6,6,7,7],"right_children":[2,-1,4,-1,6,-1,8,10,-1,-1,-1],"split_conditions":[1E0,-5.6057997E-2,3E0,1.859338E-2,5E0,3.494478E-2,9E0,6E0,2.7023628E-2,1.0669463E-2,-1.1273386E-2],"split_indices":[1,0,1,0,1,0,1,1,0,0,0],"split_type":[0,0,0,0,0,0,0,0,0,0,0],"sum_hessian":[2.1123186E3,6.003029E2,1.5120156E3,1.4836858E3,2.8329916E1,2.4167181E1,4.162734E0,3.013337E0,1.1493971E0,1.9717367E0,1.0416002E0],"tree_param":{"num_deleted":"0","num_feature":"2","num_nodes":"11","size_leaf_vector":"1"}},{"base_weights":[-5.2744364E-3,-5.0133776E-2,1.8185908E-1,1.8240103E-1,-2.4538781E-2,1.815316E-1,5.0681353E-2,1.802077E-2,2.5558376E-1,3.1546924E-2,6.3792127E-3],"categories":[],"categories_nodes":[],"categories_segments":[],"categories_sizes":[],"default_left":[0,0,0,0,0,0,0,0,0,0,0],"id":39,"left_children":[1,-1,3,5,-1,7,-1,-1,9,-1,-1],"loss_changes":[1.9261751E2,0E0,3.9362335E-1,3.3256912E-1,0E0,1.0128021E-1,0E0,0E0,2.55584E-1,0E0,0E0],"parents":[2147483647,0,0,2,2,3,3,5,5,8,8],"right_children":[2,-1,4,6,-1,8,-1,-1,10,-1,-1],"split_conditions":[1E0,-5.0133776E-2,7E0,5E0,-2.4538781E-2,3E0,5.0681353E-2,1.802077E-2,4E0,3.1546924E-2,6.3792127E-3],"split_indices":[1,0,1,1,0,1,0,0,1,0,0],"split_type":[0,0,0,0,0,0,0,0,0,0,0],"sum_hessian":[2.072965E3,5.673431E2,1.505622E3,1.5042867E3,1.3351195E0,1.5018214E3,2.4653776E0,1.4788165E3,2.3004852E1,1.7039536E1,5.9653163E0],"tree_param":{"num_deleted":"0","num_feature":"2","num_nodes":"11","size_leaf_vector":"1"}},{"base_weights":[5.5429748E-5,-6.106604E-2,1.2464142E-1,2.8516179E-2,3.5171944E-3,1.0547665E-2,-8.546293E-2,-3.989473E-2,-1.6406329E-1,-2.7277397E-3,-6.3821557E-3,-1.7200026E-1,2.5998414E-2,-1.6103668E-2,-5.8422852E-2,3.1039009E-2,-3.0426675E-2],"categories":[],"categories_nodes":[],"categories_segments":[],"categories_sizes":[],"default_left":[0,0,0,0,0,0,0,0,0,0,0,0,0,0,0,0,0],"id":40,"left_children":[1,-1,3,-1,5,-1,7,9,11,-1,-1,13,15,-1,-1,-1,-1],"loss_changes":[1.5767668E2,0E0,3.3464226E1,0E0,8.918032E0,0E0,1.8735695E0,9.89725E-2,2.9458857E-1,0E0,0E0,7.408571E-1,9.0012807E-1,0E0,0E0,0E0,0E0],"parents":[2147483647,0,0,2,2,4,4,6,6,7,7,8,8,11,11,12,12],"right_children":[2,-1,4,-1,6,-1,8,10,12,-1,-1,14,16,-1,-1,-1,-1],"split_conditions":[1E0,-6.106604E-2,2E0,2.8516179E-2,3E0,1.0547665E-2,5E0,4E0,1.9E1,-2.7277397E-3,-6.3821557E-3,1.5E1,2.5E1,-1.6103668E-2,-5.8422852E-2,3.1039009E-2,-3.0426675E-2],"split_indices":[0,0,0,0,0,0,0,0,0,0,0,0,0,0,0,0,0],"split_type":[0,0,0,0,0,0,0,0,0,0,0,0,0,0,0,0,0],"sum_hessian":[2.0703306E3,3.5012573E2,1.7202047E3,7.392097E2,9.8099506E2,4.57069E2,5.23926E2,3.326065E2,1.9131953E2,2.1917108E2,1.1343544E2,1.8374152E2,7.57801E0,1.8033597E2,3.4055505E0,4.1041236E0,3.4738863E0],"tree_param":{"num_deleted":"0","num_feature":"2","num_nodes":"17","size_leaf_vector":"1"}},{"base_weights":[-5.8674123E-3,-5.1417954E-2,1.7950332E-1,1.7869864E-1,2.6526919E-2,1.8025912E-2,4.557391E-3],"categories":[],"categories_nodes":[],"categories_segments":[],"categories_sizes":[],"default_left":[0,0,0,0,0,0,0],"id":41,"left_children":[1,-1,3,5,-1,-1,-1],"loss_changes":[1.948954E2,0E0,5.719757E-2,3.0435562E-1,0E0,0E0,0E0],"parents":[2147483647,0,0,2,2,3,3],"right_children":[2,-1,4,6,-1,-1,-1],"split_conditions":[1E0,-5.1417954E-2,4E0,3E0,2.6526919E-2,1.8025912E-2,4.557391E-3],"split_indices":[1,0,1,1,0,0,0],"split_type":[0,0,0,0,0,0,0],"sum_hessian":[2.0663987E3,5.517234E2,1.5146754E3,1.5036514E3,1.1023975E1,1.48588E3,1.7771425E1],"tree_param":{"num_deleted":"0","num_feature":"2","num_nodes":"7","size_leaf_vector":"1"}},{"base_weights":[-8.5064955E-3,-4.677201E-2,1.4889783E-1,1.4227333E-2,2.0454055E-1,1.9737862E-1,2.768263E-2,2.0361608E-2,1.49435615E-2],"categories":[],"categories_nodes":[],"categories_segments":[],"categories_sizes":[],"default_left":[0,0,0,0,0,0,0,0,0],"id":42,"left_children":[1,-1,3,-1,5,7,-1,-1,-1],"loss_changes":[1.4877773E2,0E0,5.359421E-1,0E0,2.8606892E-2,1.4365673E-2,0E0,0E0,0E0],"parents":[2147483647,0,0,2,2,4,4,5,5],"right_children":[2,-1,4,-1,6,8,-1,-1,-1],"split_conditions":[1E0,-4.677201E-2,2E0,1.4227333E-2,4E0,3E0,2.768263E-2,2.0361608E-2,1.49435615E-2],"split_indices":[1,0,1,0,1,1,0,0,0],"split_type":[0,0,0,0,0,0,0,0,0],"sum_hessian":[2.0563262E3,5.24416E2,1.5319102E3,1.3721111E3,1.5979898E2,1.4878789E2,1.1011099E1,1.2878564E2,2.0002243E1],"tree_param":{"num_deleted":"0","num_feature":"2","num_nodes":"9","size_leaf_vector":"1"}},{"base_weights":[-1.771769E-2,-5.8017254E-2,9.606942E-2,1.976921E-1,-1.348783E-1,2.6886998E-2,8.246826E-3,-7.7554554E-2,-2.3531176E-1,-8.572302E-3,-6.1420333E-3,-3.1412195E-2,-1.8971455E-1,-9.35129E-3,-2.294385E-1,-2.7372299E-2,-1.2232932E-2],"categories":[],"categories_nodes":[],"categories_segments":[],"categories_sizes":[],"default_left":[0,0,0,0,0,0,0,0,0,0,0,0,0,0,0,0,0],"id":43,"left_children":[1,-1,3,5,7,-1,-1,9,11,-1,-1,-1,13,-1,15,-1,-1],"loss_changes":[1.3055908E2,0E0,3.9851166E1,9.645302E0,2.9703207E0,0E0,0E0,3.8485527E-2,6.1646366E-1,0E0,0E0,0E0,4.4363642E-1,0E0,3.7181902E-1,0E0,0E0],"parents":[2147483647,0,0,2,2,3,3,4,4,7,7,8,8,12,12,14,14],"right_children":[2,-1,4,6,8,-1,-1,10,12,-1,-1,-1,14,-1,16,-1,-1],"split_conditions":[1E0,-5.8017254E-2,3E0,2E0,5E0,2.6886998E-2,8.246826E-3,4E0,6E0,-8.572302E-3,-6.1420333E-3,-3.1412195E-2,7E0,-9.35129E-3,1.1E1,-2.7372299E-2,-1.2232932E-2],"split_indices":[0,0,0,0,0,0,0,0,0,0,0,0,0,0,0,0,0],"split_type":[0,0,0,0,0,0,0,0,0,0,0,0,0,0,0,0,0],"sum_hessian":[2.0381111E3,3.4225085E2,1.6958602E3,1.1777606E3,5.180997E2,7.2720605E2,4.5055457E2,3.3096768E2,1.8713199E2,2.1686163E2,1.1410606E2,6.64283E1,1.2070368E2,3.6255604E1,8.444808E1,5.864547E1,2.5802612E1],"tree_param":{"num_deleted":"0","num_feature":"2","num_nodes":"17","size_leaf_vector":"1"}},{"base_weights":[-5.076288E-3,-4.815215E-2,1.5290141E-1,1.4703522E-2,2.0230033E-1,1.9534893E-1,5.0475728E-2,2.011617E-2,-1.9442037E-2],"categories":[],"categories_nodes":[],"categories_segments":[],"categories_sizes":[],"default_left":[0,0,0,0,0,0,0,0,0],"id":44,"left_children":[1,-1,3,-1,5,7,-1,-1,-1],"loss_changes":[1.5435443E2,0E0,4.165535E-1,0E0,2.3951244E-1,3.9897108E-1,0E0,0E0,0E0],"parents":[2147483647,0,0,2,2,4,4,5,5],"right_children":[2,-1,4,-1,6,8,-1,-1,-1],"split_conditions":[1E0,-4.815215E-2,2E0,1.4703522E-2,6E0,5E0,5.0475728E-2,2.011617E-2,-1.9442037E-2],"split_indices":[1,0,1,0,1,1,0,0,0],"split_type":[0,0,0,0,0,0,0,0,0],"sum_hessian":[2.0487607E3,5.0965213E2,1.5391086E3,1.3792922E3,1.5981639E2,1.5783473E2,1.9816562E0,1.5599226E2,1.8424705E0],"tree_param":{"num_deleted":"0","num_feature":"2","num_nodes":"9","size_leaf_vector":"1"}},{"base_weights":[-1.9156056E-2,-4.7576383E-2,1.2308411E-1,1.1384147E-2,2.0441392E-1,1.8075075E-2,2.9925737E-1,3.2994005E-1,-2.9698098E-2,3.7108775E-2,2.1548718E-2,-2.7764771E-2,2.4258282E-2],"categories":[],"categories_nodes":[],"categories_segments":[],"categories_sizes":[],"default_left":[0,0,0,0,0,0,0,0,0,0,0,0,0],"id":45,"left_children":[1,-1,3,-1,5,-1,7,9,11,-1,-1,-1,-1],"loss_changes":[1.3294545E2,0E0,1.1500301E0,0E0,3.0056143E-1,0E0,3.1288576E-1,4.977846E-2,3.0224934E-1,0E0,0E0,0E0,0E0],"parents":[2147483647,0,0,2,2,4,4,6,6,7,7,8,8],"right_children":[2,-1,4,-1,6,-1,8,10,12,-1,-1,-1,-1],"split_conditions":[1E0,-4.7576383E-2,2E0,1.1384147E-2,3E0,1.8075075E-2,6E0,4E0,9E0,3.7108775E-2,2.1548718E-2,-2.7764771E-2,2.4258282E-2],"split_indices":[1,0,1,0,1,0,1,1,1,0,0,0,0],"split_type":[0,0,0,0,0,0,0,0,0,0,0,0,0],"sum_hessian":[2.0450514E3,4.8518982E2,1.5598616E3,1.4028374E3,1.5702419E2,1.27995445E2,2.9028738E1,2.65494E1,2.4793365E0,1.7879242E1,8.670159E0,1.2873317E0,1.1920049E0],"tree_param":{"num_deleted":"0","num_feature":"2","num_nodes":"13","size_leaf_vector":"1"}},{"base_weights":[-5.829998E-3,-3.8704153E-2,1.06885575E-1,1.057075E-1,2.592534E-1,1.0703511E-1,1.3558427E-4,3.1383434E-1,-1.4844246E-2,1.0437876E-2,1.359831E-2,2.1659617E-1,5.5084314E-2,2.5874792E-2,4.9731643E-3],"categories":[],"categories_nodes":[],"categories_segments":[],"categories_sizes":[],"default_left":[0,0,0,0,0,0,0,0,0,0,0,0,0,0,0],"id":46,"left_children":[1,-1,3,5,7,9,-1,11,-1,-1,-1,13,-1,-1,-1],"loss_changes":[8.7540436E1,0E0,2.548504E-1,2.16259E-1,2.9973072E-1,1.0441208E-1,0E0,1.193105E-1,0E0,0E0,0E0,5.0363302E-2,0E0,0E0,0E0],"parents":[2147483647,0,0,2,2,3,3,4,4,5,5,7,7,11,11],"right_children":[2,-1,4,6,8,10,-1,12,-1,-1,-1,14,-1,-1,-1],"split_conditions":[1E0,-3.8704153E-2,4E0,3E0,1E1,2E0,1.3558427E-4,6E0,-1.4844246E-2,1.0437876E-2,1.359831E-2,5E0,5.5084314E-2,2.5874792E-2,4.9731643E-3],"split_indices":[1,0,1,1,1,1,0,1,0,0,0,1,0,0,0],"split_type":[0,0,0,0,0,0,0,0,0,0,0,0,0,0,0],"sum_hessian":[2.0353549E3,4.639184E2,1.5714365E3,1.5610605E3,1.0376041E1,1.5414241E3,1.9636372E1,9.353987E0,1.0220548E0,1.4160859E3,1.2533817E2,7.989847E0,1.3641398E0,5.9389577E0,2.0508895E0],"tree_param":{"num_deleted":"0","num_feature":"2","num_nodes":"15","size_leaf_vector":"1"}},{"base_weights":[-1.3804874E-2,-3.8671877E-2,9.2431836E-2,9.323644E-2,-3.0068144E-2,9.137954E-2,1.941199E-1,9.40473E-3,6.015519E-3,2.0427242E-2,4.6314364E-3],"categories":[],"categories_nodes":[],"categories_segments":[],"categories_sizes":[],"default_left":[0,0,0,0,0,0,0,0,0,0,0],"id":47,"left_children":[1,-1,3,5,-1,7,9,-1,-1,-1,-1],"loss_changes":[7.9847664E1,0E0,5.242195E-1,2.7567387E-1,0E0,1.22611046E-1,3.168416E-2,0E0,0E0,0E0,0E0],"parents":[2147483647,0,0,2,2,3,3,5,5,6,6],"right_children":[2,-1,4,6,-1,8,10,-1,-1,-1,-1],"split_conditions":[1E0,-3.8671877E-2,6E0,3E0,-3.0068144E-2,2E0,5E0,9.40473E-3,6.015519E-3,2.0427242E-2,4.6314364E-3],"split_indices":[1,0,1,1,0,1,1,0,0,0,0],"split_type":[0,0,0,0,0,0,0,0,0,0,0],"sum_hessian":[2.0135801E3,4.4586325E2,1.5677169E3,1.565276E3,2.4408884E0,1.5388569E3,2.6419018E1,1.4158748E3,1.22982185E2,2.4363495E1,2.0555234E0],"tree_param":{"num_deleted":"0","num_feature":"2","num_nodes":"11","size_leaf_vector":"1"}},{"base_weights":[-2.3945807E-3,-5.3096455E-2,1.0613975E-1,2.9192928E-2,-2.845256E-2,6.842582E-3,-1.1421044E-1,-6.596327E-2,-1.941334E-1,-5.7522007E-3,-8.096377E-3,-1.7562617E-1,-4.3617672E-1,-1.8972663E-2,-2.243446E-3,-5.7664435E-2,-2.3611993E-2],"categories":[],"categories_nodes":[],"categories_segments":[],"categories_sizes":[],"default_left":[0,0,0,0,0,0,0,0,0,0,0,0,0,0,0,0,0],"id":48,"left_children":[1,-1,3,-1,5,-1,7,9,11,-1,-1,13,15,-1,-1,-1,-1],"loss_changes":[1.1471936E2,0E0,4.149466E1,0E0,8.008537E0,0E0,1.9583917E0,3.589785E-2,7.8308773E-1,0E0,0E0,3.844633E-1,2.2797894E-1,0E0,0E0,0E0,0E0],"parents":[2147483647,0,0,2,2,4,4,6,6,7,7,8,8,11,11,12,12],"right_children":[2,-1,4,-1,6,-1,8,10,12,-1,-1,14,16,-1,-1,-1,-1],"split_conditions":[1E0,-5.3096455E-2,2E0,2.9192928E-2,3E0,6.842582E-3,5E0,4E0,1.5E1,-5.7522007E-3,-8.096377E-3,1.1E1,2.1E1,-1.8972663E-2,-2.243446E-3,-5.7664435E-2,-2.3611993E-2],"split_indices":[0,0,0,0,0,0,0,0,0,0,0,0,0,0,0,0,0],"split_type":[0,0,0,0,0,0,0,0,0,0,0,0,0,0,0,0,0],"sum_hessian":[1.9977278E3,3.396612E2,1.6580667E3,6.960622E2,9.6200446E2,4.5180948E2,5.1019495E2,3.1928012E2,1.9091483E2,2.0740266E2,1.1187744E2,1.7895694E2,1.1957886E1,1.6365492E2,1.5302025E1,5.9193063E0,6.038579E0],"tree_param":{"num_deleted":"0","num_feature":"2","num_nodes":"17","size_leaf_vector":"1"}},{"base_weights":[-1.3216439E-2,-5.1372018E-2,8.767645E-2,2.9052926E-2,-6.625746E-2,-3.4409382E-3,-2.091556E-1,2.4839907E-3,-6.088204E-3,-1.9458681E-1,-3.976693E-1,-1.9982946E-1,3.920881E-3,-4.2737687E-1,-8.8808866E-4,-1.5164301E-2,-2.3218786E-2,-5.057468E-2,-2.87738E-2],"categories":[],"categories_nodes":[],"categories_segments":[],"categories_sizes":[],"default_left":[0,0,0,0,0,0,0,0,0,0,0,0,0,0,0,0,0,0,0],"id":49,"left_children":[1,-1,3,-1,5,7,9,-1,-1,11,13,15,-1,17,-1,-1,-1,-1,-1],"loss_changes":[1.0151468E2,0E0,5.226509E1,0E0,8.545633E0,1.0775414E0,7.210369E-1,0E0,0E0,3.410015E-1,2.2601509E-1,3.7957573E-1,0E0,5.653143E-2,0E0,0E0,0E0,0E0,0E0],"parents":[2147483647,0,0,2,2,4,4,5,5,6,6,9,9,10,10,11,11,13,13],"right_children":[2,-1,4,-1,6,8,10,-1,-1,12,14,16,-1,18,-1,-1,-1,-1,-1],"split_conditions":[1E0,-5.1372018E-2,2E0,2.9052926E-2,4E0,3E0,1.2E1,2.4839907E-3,-6.088204E-3,1.1E1,3.7E1,5E0,3.920881E-3,1.6E1,-8.8808866E-4,-1.5164301E-2,-2.3218786E-2,-5.057468E-2,-2.87738E-2],"split_indices":[0,0,0,0,0,0,0,0,0,0,0,0,0,0,0,0,0,0,0],"split_type":[0,0,0,0,0,0,0,0,0,0,0,0,0,0,0,0,0,0,0],"sum_hessian":[2.0084088E3,3.362529E2,1.6721559E3,7.210608E2,9.5109515E2,6.6138245E2,2.8971268E2,4.4356363E2,2.1781882E2,2.708156E2,1.8897068E1,2.6501813E2,5.7974944E0,1.7463423E1,1.433645E0,1.0875387E2,1.5626425E2,9.506337E0,7.957085E0],"tree_param":{"num_deleted":"0","num_feature":"2","num_nodes":"19","size_leaf_vector":"1"}}]},"name":"gbtree"},"learner_model_param":{"base_score":"9.9142855E-3","boost_from_average":"1","num_class":"0","num_feature":"2","num_target":"1"},"objective":{"name":"binary:logistic","reg_loss_param":{"scale_pos_weight":"1"}}},"version":[3,0,3]}